digraph Tree {
node [shape=box] ;
0 [label="X[1] <= 0.5\ngini = 0.234\nsamples = 163\nvalue = [141, 22]"] ;
1 [label="X[0] <= 3.5\ngini = 0.083\nsamples = 23\nvalue = [1, 22]"] ;
0 -> 1 [labeldistance=2.5, labelangle=45, headlabel="True"] ;
2 [label="gini = 0.0\nsamples = 17\nvalue = [0, 17]"] ;
1 -> 2 ;
3 [label="X[0] <= 4.5\ngini = 0.278\nsamples = 6\nvalue = [1, 5]"] ;
1 -> 3 ;
4 [label="gini = 0.375\nsamples = 4\nvalue = [1, 3]"] ;
3 -> 4 ;
5 [label="gini = 0.0\nsamples = 2\nvalue = [0, 2]"] ;
3 -> 5 ;
6 [label="gini = 0.0\nsamples = 140\nvalue = [140, 0]"] ;
0 -> 6 [labeldistance=2.5, labelangle=-45, headlabel="False"] ;
}